digraph Tree {
node [shape=box, style="filled", color="black", fontname="helvetica"] ;
edge [fontname="helvetica"] ;
0 [label="Location_Walpole <= 0.5\ngini = 0.27\nsamples = 39896\nvalue = [33477.0, 6419.0]\nclass = No", fillcolor="#ea995f"] ;
1 [label="Humidity3pm <= 0.775\ngini = 0.265\nsamples = 38333\nvalue = [32295, 6038]\nclass = No", fillcolor="#ea995e"] ;
0 -> 1 [labeldistance=2.5, labelangle=45, headlabel="True"] ;
2 [label="Rainfall <= 0.0\ngini = 0.218\nsamples = 35581\nvalue = [31145, 4436]\nclass = No", fillcolor="#e99355"] ;
1 -> 2 ;
3 [label="WindDir3pm_N <= 0.5\ngini = 0.2\nsamples = 29042\nvalue = [25773, 3269]\nclass = No", fillcolor="#e89152"] ;
2 -> 3 ;
4 [label="WindDir3pm_W <= 0.5\ngini = 0.195\nsamples = 27121\nvalue = [24148, 2973]\nclass = No", fillcolor="#e89151"] ;
3 -> 4 ;
5 [label="WindSpeed3pm <= 0.207\ngini = 0.198\nsamples = 25287\nvalue = [22475, 2812]\nclass = No", fillcolor="#e89152"] ;
4 -> 5 ;
6 [label="Location_Richmond <= 0.5\ngini = 0.173\nsamples = 13621\nvalue = [12315, 1306]\nclass = No", fillcolor="#e88e4e"] ;
5 -> 6 ;
7 [label="Location_NorfolkIsland <= 0.5\ngini = 0.175\nsamples = 12967\nvalue = [11709, 1258]\nclass = No", fillcolor="#e88f4e"] ;
6 -> 7 ;
8 [label="Pressure3pm <= 0.514\ngini = 0.174\nsamples = 12899\nvalue = [11657, 1242]\nclass = No", fillcolor="#e88e4e"] ;
7 -> 8 ;
9 [label="gini = 0.363\nsamples = 935\nvalue = [712, 223]\nclass = No", fillcolor="#eda877"] ;
8 -> 9 ;
10 [label="gini = 0.156\nsamples = 11964\nvalue = [10945, 1019]\nclass = No", fillcolor="#e78d4b"] ;
8 -> 10 ;
11 [label="Cloud3pm <= 0.278\ngini = 0.36\nsamples = 68\nvalue = [52, 16]\nclass = No", fillcolor="#eda876"] ;
7 -> 11 ;
12 [label="gini = 0.444\nsamples = 6\nvalue = [2, 4]\nclass = Yes", fillcolor="#9ccef2"] ;
11 -> 12 ;
13 [label="gini = 0.312\nsamples = 62\nvalue = [50, 12]\nclass = No", fillcolor="#eb9f69"] ;
11 -> 13 ;
14 [label="WindGustDir_ENE <= 0.5\ngini = 0.136\nsamples = 654\nvalue = [606, 48]\nclass = No", fillcolor="#e78b49"] ;
6 -> 14 ;
15 [label="Cloud3pm <= 0.611\ngini = 0.153\nsamples = 550\nvalue = [504, 46]\nclass = No", fillcolor="#e78c4b"] ;
14 -> 15 ;
16 [label="gini = 0.139\nsamples = 504\nvalue = [466, 38]\nclass = No", fillcolor="#e78b49"] ;
15 -> 16 ;
17 [label="gini = 0.287\nsamples = 46\nvalue = [38, 8]\nclass = No", fillcolor="#ea9c63"] ;
15 -> 17 ;
18 [label="WindSpeed3pm <= 0.161\ngini = 0.038\nsamples = 104\nvalue = [102, 2]\nclass = No", fillcolor="#e6833d"] ;
14 -> 18 ;
19 [label="gini = 0.024\nsamples = 84\nvalue = [83, 1]\nclass = No", fillcolor="#e5833b"] ;
18 -> 19 ;
20 [label="gini = 0.095\nsamples = 20\nvalue = [19, 1]\nclass = No", fillcolor="#e68843"] ;
18 -> 20 ;
21 [label="Humidity3pm <= 0.495\ngini = 0.225\nsamples = 11666\nvalue = [10160, 1506]\nclass = No", fillcolor="#e99456"] ;
5 -> 21 ;
22 [label="Location_Hobart <= 0.5\ngini = 0.144\nsamples = 5581\nvalue = [5146, 435]\nclass = No", fillcolor="#e78c4a"] ;
21 -> 22 ;
23 [label="Pressure3pm <= 0.5\ngini = 0.143\nsamples = 5528\nvalue = [5101.0, 427.0]\nclass = No", fillcolor="#e78c4a"] ;
22 -> 23 ;
24 [label="gini = 0.29\nsamples = 726\nvalue = [598, 128]\nclass = No", fillcolor="#eb9c63"] ;
23 -> 24 ;
25 [label="gini = 0.117\nsamples = 4802\nvalue = [4503, 299]\nclass = No", fillcolor="#e78946"] ;
23 -> 25 ;
26 [label="WindGustDir_NE <= 0.5\ngini = 0.256\nsamples = 53\nvalue = [45, 8]\nclass = No", fillcolor="#ea975c"] ;
22 -> 26 ;
27 [label="gini = 0.26\nsamples = 52\nvalue = [44, 8]\nclass = No", fillcolor="#ea985d"] ;
26 -> 27 ;
28 [label="gini = 0.0\nsamples = 1\nvalue = [1, 0]\nclass = No", fillcolor="#e58139"] ;
26 -> 28 ;
29 [label="MinTemp <= 0.758\ngini = 0.29\nsamples = 6085\nvalue = [5014, 1071]\nclass = No", fillcolor="#eb9c63"] ;
21 -> 29 ;
30 [label="Location_GoldCoast <= 0.5\ngini = 0.284\nsamples = 5930\nvalue = [4913, 1017]\nclass = No", fillcolor="#ea9b62"] ;
29 -> 30 ;
31 [label="gini = 0.295\nsamples = 5224\nvalue = [4286, 938]\nclass = No", fillcolor="#eb9d64"] ;
30 -> 31 ;
32 [label="gini = 0.199\nsamples = 706\nvalue = [627, 79]\nclass = No", fillcolor="#e89152"] ;
30 -> 32 ;
33 [label="Location_Ballarat <= 0.5\ngini = 0.454\nsamples = 155\nvalue = [101, 54]\nclass = No", fillcolor="#f3c4a3"] ;
29 -> 33 ;
34 [label="gini = 0.451\nsamples = 154\nvalue = [101.0, 53.0]\nclass = No", fillcolor="#f3c3a1"] ;
33 -> 34 ;
35 [label="gini = 0.0\nsamples = 1\nvalue = [0, 1]\nclass = Yes", fillcolor="#399de5"] ;
33 -> 35 ;
36 [label="WindDir9am_N <= 0.5\ngini = 0.16\nsamples = 1834\nvalue = [1673, 161]\nclass = No", fillcolor="#e88d4c"] ;
4 -> 36 ;
37 [label="Evaporation <= 0.049\ngini = 0.148\nsamples = 1515\nvalue = [1393, 122]\nclass = No", fillcolor="#e78c4a"] ;
36 -> 37 ;
38 [label="WindGustDir_WSW <= 0.5\ngini = 0.144\nsamples = 1506\nvalue = [1388, 118]\nclass = No", fillcolor="#e78c4a"] ;
37 -> 38 ;
39 [label="Location_Hobart <= 0.5\ngini = 0.152\nsamples = 1267\nvalue = [1162, 105]\nclass = No", fillcolor="#e78c4b"] ;
38 -> 39 ;
40 [label="gini = 0.151\nsamples = 1266\nvalue = [1162, 104]\nclass = No", fillcolor="#e78c4b"] ;
39 -> 40 ;
41 [label="gini = 0.0\nsamples = 1\nvalue = [0, 1]\nclass = Yes", fillcolor="#399de5"] ;
39 -> 41 ;
42 [label="Location_Uluru <= 0.5\ngini = 0.103\nsamples = 239\nvalue = [226, 13]\nclass = No", fillcolor="#e68844"] ;
38 -> 42 ;
43 [label="gini = 0.105\nsamples = 235\nvalue = [222, 13]\nclass = No", fillcolor="#e78845"] ;
42 -> 43 ;
44 [label="gini = 0.0\nsamples = 4\nvalue = [4, 0]\nclass = No", fillcolor="#e58139"] ;
42 -> 44 ;
45 [label="Year <= 0.05\ngini = 0.494\nsamples = 9\nvalue = [5, 4]\nclass = No", fillcolor="#fae6d7"] ;
37 -> 45 ;
46 [label="gini = 0.0\nsamples = 1\nvalue = [0, 1]\nclass = Yes", fillcolor="#399de5"] ;
45 -> 46 ;
47 [label="Evaporation <= 0.05\ngini = 0.469\nsamples = 8\nvalue = [5, 3]\nclass = No", fillcolor="#f5cdb0"] ;
45 -> 47 ;
48 [label="gini = 0.48\nsamples = 5\nvalue = [3, 2]\nclass = No", fillcolor="#f6d5bd"] ;
47 -> 48 ;
49 [label="gini = 0.444\nsamples = 3\nvalue = [2, 1]\nclass = No", fillcolor="#f2c09c"] ;
47 -> 49 ;
50 [label="Location_PearceRAAF <= 0.5\ngini = 0.215\nsamples = 319\nvalue = [280, 39]\nclass = No", fillcolor="#e99355"] ;
36 -> 50 ;
51 [label="Location_SalmonGums <= 0.5\ngini = 0.199\nsamples = 313\nvalue = [278, 35]\nclass = No", fillcolor="#e89152"] ;
50 -> 51 ;
52 [label="Pressure9am <= 0.367\ngini = 0.201\nsamples = 309\nvalue = [274, 35]\nclass = No", fillcolor="#e89152"] ;
51 -> 52 ;
53 [label="gini = 0.0\nsamples = 1\nvalue = [0, 1]\nclass = Yes", fillcolor="#399de5"] ;
52 -> 53 ;
54 [label="gini = 0.196\nsamples = 308\nvalue = [274, 34]\nclass = No", fillcolor="#e89152"] ;
52 -> 54 ;
55 [label="gini = 0.0\nsamples = 4\nvalue = [4, 0]\nclass = No", fillcolor="#e58139"] ;
51 -> 55 ;
56 [label="WindGustDir_WNW <= 0.5\ngini = 0.444\nsamples = 6\nvalue = [2, 4]\nclass = Yes", fillcolor="#9ccef2"] ;
50 -> 56 ;
57 [label="Month <= 0.864\ngini = 0.375\nsamples = 4\nvalue = [1, 3]\nclass = Yes", fillcolor="#7bbeee"] ;
56 -> 57 ;
58 [label="gini = 0.0\nsamples = 3\nvalue = [0, 3]\nclass = Yes", fillcolor="#399de5"] ;
57 -> 58 ;
59 [label="gini = 0.0\nsamples = 1\nvalue = [1, 0]\nclass = No", fillcolor="#e58139"] ;
57 -> 59 ;
60 [label="WindSpeed3pm <= 0.253\ngini = 0.5\nsamples = 2\nvalue = [1, 1]\nclass = No", fillcolor="#ffffff"] ;
56 -> 60 ;
61 [label="gini = 0.0\nsamples = 1\nvalue = [0, 1]\nclass = Yes", fillcolor="#399de5"] ;
60 -> 61 ;
62 [label="gini = 0.0\nsamples = 1\nvalue = [1, 0]\nclass = No", fillcolor="#e58139"] ;
60 -> 62 ;
63 [label="Location_Perth <= 0.5\ngini = 0.261\nsamples = 1921\nvalue = [1625, 296]\nclass = No", fillcolor="#ea985d"] ;
3 -> 63 ;
64 [label="MaxTemp <= 0.613\ngini = 0.26\nsamples = 1916\nvalue = [1622, 294]\nclass = No", fillcolor="#ea985d"] ;
63 -> 64 ;
65 [label="WindGustDir_NE <= 0.5\ngini = 0.279\nsamples = 1325\nvalue = [1103, 222]\nclass = No", fillcolor="#ea9a61"] ;
64 -> 65 ;
66 [label="WindDir9am_SSE <= 0.5\ngini = 0.281\nsamples = 1253\nvalue = [1041, 212]\nclass = No", fillcolor="#ea9b61"] ;
65 -> 66 ;
67 [label="MaxTemp <= 0.292\ngini = 0.286\nsamples = 1215\nvalue = [1005, 210]\nclass = No", fillcolor="#ea9b62"] ;
66 -> 67 ;
68 [label="gini = 0.0\nsamples = 21\nvalue = [21, 0]\nclass = No", fillcolor="#e58139"] ;
67 -> 68 ;
69 [label="gini = 0.29\nsamples = 1194\nvalue = [984.0, 210.0]\nclass = No", fillcolor="#eb9c63"] ;
67 -> 69 ;
70 [label="Cloud3pm <= 0.722\ngini = 0.1\nsamples = 38\nvalue = [36, 2]\nclass = No", fillcolor="#e68844"] ;
66 -> 70 ;
71 [label="gini = 0.059\nsamples = 33\nvalue = [32, 1]\nclass = No", fillcolor="#e6853f"] ;
70 -> 71 ;
72 [label="gini = 0.32\nsamples = 5\nvalue = [4, 1]\nclass = No", fillcolor="#eca06a"] ;
70 -> 72 ;
73 [label="Location_CoffsHarbour <= 0.5\ngini = 0.239\nsamples = 72\nvalue = [62, 10]\nclass = No", fillcolor="#e99559"] ;
65 -> 73 ;
74 [label="WindSpeed9am <= 0.162\ngini = 0.221\nsamples = 71\nvalue = [62.0, 9.0]\nclass = No", fillcolor="#e99356"] ;
73 -> 74 ;
75 [label="gini = 0.182\nsamples = 69\nvalue = [62, 7]\nclass = No", fillcolor="#e88f4f"] ;
74 -> 75 ;
76 [label="gini = 0.0\nsamples = 2\nvalue = [0, 2]\nclass = Yes", fillcolor="#399de5"] ;
74 -> 76 ;
77 [label="gini = 0.0\nsamples = 1\nvalue = [0, 1]\nclass = Yes", fillcolor="#399de5"] ;
73 -> 77 ;
78 [label="WindDir9am_SW <= 0.5\ngini = 0.214\nsamples = 591\nvalue = [519, 72]\nclass = No", fillcolor="#e99254"] ;
64 -> 78 ;
79 [label="MinTemp <= 0.669\ngini = 0.217\nsamples = 581\nvalue = [509, 72]\nclass = No", fillcolor="#e99355"] ;
78 -> 79 ;
80 [label="Location_Brisbane <= 0.5\ngini = 0.167\nsamples = 436\nvalue = [396, 40]\nclass = No", fillcolor="#e88e4d"] ;
79 -> 80 ;
81 [label="gini = 0.163\nsamples = 435\nvalue = [396, 39]\nclass = No", fillcolor="#e88d4c"] ;
80 -> 81 ;
82 [label="gini = 0.0\nsamples = 1\nvalue = [0, 1]\nclass = Yes", fillcolor="#399de5"] ;
80 -> 82 ;
83 [label="Temp3pm <= 0.68\ngini = 0.344\nsamples = 145\nvalue = [113, 32]\nclass = No", fillcolor="#eca571"] ;
79 -> 83 ;
84 [label="gini = 0.252\nsamples = 54\nvalue = [46, 8]\nclass = No", fillcolor="#ea975b"] ;
83 -> 84 ;
85 [label="gini = 0.388\nsamples = 91\nvalue = [67, 24]\nclass = No", fillcolor="#eeae80"] ;
83 -> 85 ;
86 [label="gini = 0.0\nsamples = 10\nvalue = [10, 0]\nclass = No", fillcolor="#e58139"] ;
78 -> 86 ;
87 [label="Humidity9am <= 0.495\ngini = 0.48\nsamples = 5\nvalue = [3, 2]\nclass = No", fillcolor="#f6d5bd"] ;
63 -> 87 ;
88 [label="gini = 0.0\nsamples = 2\nvalue = [0, 2]\nclass = Yes", fillcolor="#399de5"] ;
87 -> 88 ;
89 [label="gini = 0.0\nsamples = 3\nvalue = [3, 0]\nclass = No", fillcolor="#e58139"] ;
87 -> 89 ;
90 [label="Cloud3pm <= 0.611\ngini = 0.293\nsamples = 6539\nvalue = [5372, 1167]\nclass = No", fillcolor="#eb9c64"] ;
2 -> 90 ;
91 [label="Location_Adelaide <= 0.5\ngini = 0.272\nsamples = 5266\nvalue = [4410, 856]\nclass = No", fillcolor="#ea995f"] ;
90 -> 91 ;
92 [label="Humidity3pm <= 0.515\ngini = 0.269\nsamples = 5131\nvalue = [4311, 820]\nclass = No", fillcolor="#ea995f"] ;
91 -> 92 ;
93 [label="WindSpeed3pm <= 0.437\ngini = 0.142\nsamples = 2076\nvalue = [1916, 160]\nclass = No", fillcolor="#e78c4a"] ;
92 -> 93 ;
94 [label="WindGustSpeed <= 0.403\ngini = 0.141\nsamples = 2061\nvalue = [1904, 157]\nclass = No", fillcolor="#e78b49"] ;
93 -> 94 ;
95 [label="WindDir3pm_SSE <= 0.5\ngini = 0.128\nsamples = 1972\nvalue = [1836, 136]\nclass = No", fillcolor="#e78a48"] ;
94 -> 95 ;
96 [label="gini = 0.134\nsamples = 1843\nvalue = [1710, 133]\nclass = No", fillcolor="#e78b48"] ;
95 -> 96 ;
97 [label="gini = 0.045\nsamples = 129\nvalue = [126, 3]\nclass = No", fillcolor="#e6843e"] ;
95 -> 97 ;
98 [label="MinTemp <= 0.583\ngini = 0.361\nsamples = 89\nvalue = [68, 21]\nclass = No", fillcolor="#eda876"] ;
94 -> 98 ;
99 [label="gini = 0.32\nsamples = 75\nvalue = [60, 15]\nclass = No", fillcolor="#eca06a"] ;
98 -> 99 ;
100 [label="gini = 0.49\nsamples = 14\nvalue = [8, 6]\nclass = No", fillcolor="#f8e0ce"] ;
98 -> 100 ;
101 [label="Cloud3pm <= 0.444\ngini = 0.32\nsamples = 15\nvalue = [12, 3]\nclass = No", fillcolor="#eca06a"] ;
93 -> 101 ;
102 [label="gini = 0.0\nsamples = 2\nvalue = [2, 0]\nclass = No", fillcolor="#e58139"] ;
101 -> 102 ;
103 [label="WindDir3pm_NW <= 0.5\ngini = 0.355\nsamples = 13\nvalue = [10, 3]\nclass = No", fillcolor="#eda774"] ;
101 -> 103 ;
104 [label="gini = 0.298\nsamples = 11\nvalue = [9, 2]\nclass = No", fillcolor="#eb9d65"] ;
103 -> 104 ;
105 [label="gini = 0.5\nsamples = 2\nvalue = [1, 1]\nclass = No", fillcolor="#ffffff"] ;
103 -> 105 ;
106 [label="Humidity3pm <= 0.675\ngini = 0.339\nsamples = 3055\nvalue = [2395, 660]\nclass = No", fillcolor="#eca470"] ;
92 -> 106 ;
107 [label="Temp9am <= 0.4\ngini = 0.309\nsamples = 2286\nvalue = [1850, 436]\nclass = No", fillcolor="#eb9f68"] ;
106 -> 107 ;
108 [label="Pressure9am <= 0.778\ngini = 0.205\nsamples = 726\nvalue = [642, 84]\nclass = No", fillcolor="#e89153"] ;
107 -> 108 ;
109 [label="gini = 0.236\nsamples = 584\nvalue = [504, 80]\nclass = No", fillcolor="#e99558"] ;
108 -> 109 ;
110 [label="gini = 0.055\nsamples = 142\nvalue = [138, 4]\nclass = No", fillcolor="#e6853f"] ;
108 -> 110 ;
111 [label="WindDir9am_N <= 0.5\ngini = 0.349\nsamples = 1560\nvalue = [1208, 352]\nclass = No", fillcolor="#eda673"] ;
107 -> 111 ;
112 [label="gini = 0.331\nsamples = 1308\nvalue = [1034, 274]\nclass = No", fillcolor="#eca26d"] ;
111 -> 112 ;
113 [label="gini = 0.427\nsamples = 252\nvalue = [174, 78]\nclass = No", fillcolor="#f1b992"] ;
111 -> 113 ;
114 [label="Location_Brisbane <= 0.5\ngini = 0.413\nsamples = 769\nvalue = [545, 224]\nclass = No", fillcolor="#f0b58a"] ;
106 -> 114 ;
115 [label="Location_Witchcliffe <= 0.5\ngini = 0.413\nsamples = 768\nvalue = [544, 224]\nclass = No", fillcolor="#f0b58b"] ;
114 -> 115 ;
116 [label="gini = 0.392\nsamples = 690\nvalue = [505.0, 185.0]\nclass = No", fillcolor="#efaf82"] ;
115 -> 116 ;
117 [label="gini = 0.5\nsamples = 78\nvalue = [39, 39]\nclass = No", fillcolor="#ffffff"] ;
115 -> 117 ;
118 [label="gini = 0.0\nsamples = 1\nvalue = [1, 0]\nclass = No", fillcolor="#e58139"] ;
114 -> 118 ;
119 [label="WindSpeed3pm <= 0.034\ngini = 0.391\nsamples = 135\nvalue = [99, 36]\nclass = No", fillcolor="#eeaf81"] ;
91 -> 119 ;
120 [label="gini = 0.0\nsamples = 3\nvalue = [0, 3]\nclass = Yes", fillcolor="#399de5"] ;
119 -> 120 ;
121 [label="WindDir3pm_NNE <= 0.5\ngini = 0.375\nsamples = 132\nvalue = [99, 33]\nclass = No", fillcolor="#eeab7b"] ;
119 -> 121 ;
122 [label="WindDir3pm_SSE <= 0.5\ngini = 0.35\nsamples = 124\nvalue = [96, 28]\nclass = No", fillcolor="#eda673"] ;
121 -> 122 ;
123 [label="Rainfall <= 0.003\ngini = 0.368\nsamples = 115\nvalue = [87, 28]\nclass = No", fillcolor="#edaa79"] ;
122 -> 123 ;
124 [label="gini = 0.33\nsamples = 96\nvalue = [76, 20]\nclass = No", fillcolor="#eca26d"] ;
123 -> 124 ;
125 [label="gini = 0.488\nsamples = 19\nvalue = [11, 8]\nclass = No", fillcolor="#f8ddc9"] ;
123 -> 125 ;
126 [label="gini = 0.0\nsamples = 9\nvalue = [9, 0]\nclass = No", fillcolor="#e58139"] ;
122 -> 126 ;
127 [label="Pressure9am <= 0.642\ngini = 0.469\nsamples = 8\nvalue = [3, 5]\nclass = Yes", fillcolor="#b0d8f5"] ;
121 -> 127 ;
128 [label="gini = 0.0\nsamples = 3\nvalue = [0, 3]\nclass = Yes", fillcolor="#399de5"] ;
127 -> 128 ;
129 [label="WindSpeed3pm <= 0.063\ngini = 0.48\nsamples = 5\nvalue = [3, 2]\nclass = No", fillcolor="#f6d5bd"] ;
127 -> 129 ;
130 [label="gini = 0.0\nsamples = 1\nvalue = [1, 0]\nclass = No", fillcolor="#e58139"] ;
129 -> 130 ;
131 [label="gini = 0.5\nsamples = 4\nvalue = [2, 2]\nclass = No", fillcolor="#ffffff"] ;
129 -> 131 ;
132 [label="WindGustDir_SSE <= 0.5\ngini = 0.369\nsamples = 1273\nvalue = [962, 311]\nclass = No", fillcolor="#edaa79"] ;
90 -> 132 ;
133 [label="Location_Ballarat <= 0.5\ngini = 0.375\nsamples = 1189\nvalue = [892, 297]\nclass = No", fillcolor="#eeab7b"] ;
132 -> 133 ;
134 [label="WindDir9am_ESE <= 0.5\ngini = 0.387\nsamples = 1029\nvalue = [759, 270]\nclass = No", fillcolor="#eeae7f"] ;
133 -> 134 ;
135 [label="Temp9am <= 0.607\ngini = 0.392\nsamples = 988\nvalue = [724, 264]\nclass = No", fillcolor="#eeaf81"] ;
134 -> 135 ;
136 [label="WindDir9am_N <= 0.5\ngini = 0.367\nsamples = 814\nvalue = [617, 197]\nclass = No", fillcolor="#eda978"] ;
135 -> 136 ;
137 [label="gini = 0.35\nsamples = 680\nvalue = [526, 154]\nclass = No", fillcolor="#eda673"] ;
136 -> 137 ;
138 [label="gini = 0.436\nsamples = 134\nvalue = [91, 43]\nclass = No", fillcolor="#f1bd97"] ;
136 -> 138 ;
139 [label="Humidity3pm <= 0.555\ngini = 0.474\nsamples = 174\nvalue = [107, 67]\nclass = No", fillcolor="#f5d0b5"] ;
135 -> 139 ;
140 [label="gini = 0.341\nsamples = 55\nvalue = [43, 12]\nclass = No", fillcolor="#eca470"] ;
139 -> 140 ;
141 [label="gini = 0.497\nsamples = 119\nvalue = [64, 55]\nclass = No", fillcolor="#fbede3"] ;
139 -> 141 ;
142 [label="WindDir3pm_WSW <= 0.5\ngini = 0.25\nsamples = 41\nvalue = [35, 6]\nclass = No", fillcolor="#e9975b"] ;
134 -> 142 ;
143 [label="Pressure9am <= 0.778\ngini = 0.224\nsamples = 39\nvalue = [34, 5]\nclass = No", fillcolor="#e99456"] ;
142 -> 143 ;
144 [label="gini = 0.157\nsamples = 35\nvalue = [32, 3]\nclass = No", fillcolor="#e78d4c"] ;
143 -> 144 ;
145 [label="gini = 0.5\nsamples = 4\nvalue = [2, 2]\nclass = No", fillcolor="#ffffff"] ;
143 -> 145 ;
146 [label="Month <= 0.773\ngini = 0.5\nsamples = 2\nvalue = [1, 1]\nclass = No", fillcolor="#ffffff"] ;
142 -> 146 ;
147 [label="gini = 0.0\nsamples = 1\nvalue = [1, 0]\nclass = No", fillcolor="#e58139"] ;
146 -> 147 ;
148 [label="gini = 0.0\nsamples = 1\nvalue = [0, 1]\nclass = Yes", fillcolor="#399de5"] ;
146 -> 148 ;
149 [label="WindSpeed3pm <= 0.241\ngini = 0.281\nsamples = 160\nvalue = [133, 27]\nclass = No", fillcolor="#ea9b61"] ;
133 -> 149 ;
150 [label="WindDir9am_E <= 0.5\ngini = 0.145\nsamples = 89\nvalue = [82, 7]\nclass = No", fillcolor="#e78c4a"] ;
149 -> 150 ;
151 [label="WindDir3pm_SSE <= 0.5\ngini = 0.128\nsamples = 87\nvalue = [81, 6]\nclass = No", fillcolor="#e78a48"] ;
150 -> 151 ;
152 [label="gini = 0.112\nsamples = 84\nvalue = [79, 5]\nclass = No", fillcolor="#e78946"] ;
151 -> 152 ;
153 [label="gini = 0.444\nsamples = 3\nvalue = [2, 1]\nclass = No", fillcolor="#f2c09c"] ;
151 -> 153 ;
154 [label="Temp3pm <= 0.331\ngini = 0.5\nsamples = 2\nvalue = [1, 1]\nclass = No", fillcolor="#ffffff"] ;
150 -> 154 ;
155 [label="gini = 0.0\nsamples = 1\nvalue = [0, 1]\nclass = Yes", fillcolor="#399de5"] ;
154 -> 155 ;
156 [label="gini = 0.0\nsamples = 1\nvalue = [1, 0]\nclass = No", fillcolor="#e58139"] ;
154 -> 156 ;
157 [label="Year <= 0.75\ngini = 0.405\nsamples = 71\nvalue = [51, 20]\nclass = No", fillcolor="#efb287"] ;
149 -> 157 ;
158 [label="WindDir9am_WSW <= 0.5\ngini = 0.375\nsamples = 44\nvalue = [33, 11]\nclass = No", fillcolor="#eeab7b"] ;
157 -> 158 ;
159 [label="gini = 0.393\nsamples = 41\nvalue = [30, 11]\nclass = No", fillcolor="#efaf82"] ;
158 -> 159 ;
160 [label="gini = 0.0\nsamples = 3\nvalue = [3, 0]\nclass = No", fillcolor="#e58139"] ;
158 -> 160 ;
161 [label="WindDir3pm_NNE <= 0.5\ngini = 0.444\nsamples = 27\nvalue = [18, 9]\nclass = No", fillcolor="#f2c09c"] ;
157 -> 161 ;
162 [label="gini = 0.453\nsamples = 26\nvalue = [17, 9]\nclass = No", fillcolor="#f3c4a2"] ;
161 -> 162 ;
163 [label="gini = 0.0\nsamples = 1\nvalue = [1, 0]\nclass = No", fillcolor="#e58139"] ;
161 -> 163 ;
164 [label="WindDir3pm_NE <= 0.5\ngini = 0.278\nsamples = 84\nvalue = [70, 14]\nclass = No", fillcolor="#ea9a61"] ;
132 -> 164 ;
165 [label="WindDir9am_W <= 0.5\ngini = 0.264\nsamples = 83\nvalue = [70, 13]\nclass = No", fillcolor="#ea985e"] ;
164 -> 165 ;
166 [label="Temp3pm <= 0.709\ngini = 0.267\nsamples = 82\nvalue = [69, 13]\nclass = No", fillcolor="#ea995e"] ;
165 -> 166 ;
167 [label="WindDir9am_WSW <= 0.5\ngini = 0.252\nsamples = 81\nvalue = [69, 12]\nclass = No", fillcolor="#ea975b"] ;
166 -> 167 ;
168 [label="gini = 0.242\nsamples = 78\nvalue = [67, 11]\nclass = No", fillcolor="#e9965a"] ;
167 -> 168 ;
169 [label="gini = 0.444\nsamples = 3\nvalue = [2, 1]\nclass = No", fillcolor="#f2c09c"] ;
167 -> 169 ;
170 [label="gini = 0.0\nsamples = 1\nvalue = [0, 1]\nclass = Yes", fillcolor="#399de5"] ;
166 -> 170 ;
171 [label="gini = 0.0\nsamples = 1\nvalue = [1, 0]\nclass = No", fillcolor="#e58139"] ;
165 -> 171 ;
172 [label="gini = 0.0\nsamples = 1\nvalue = [0, 1]\nclass = Yes", fillcolor="#399de5"] ;
164 -> 172 ;
173 [label="Location_Cobar <= 0.5\ngini = 0.487\nsamples = 2752\nvalue = [1150, 1602]\nclass = Yes", fillcolor="#c7e3f8"] ;
1 -> 173 ;
174 [label="Location_Cairns <= 0.5\ngini = 0.487\nsamples = 2732\nvalue = [1148, 1584]\nclass = Yes", fillcolor="#c8e4f8"] ;
173 -> 174 ;
175 [label="Pressure3pm <= 0.569\ngini = 0.488\nsamples = 2718\nvalue = [1145, 1573]\nclass = Yes", fillcolor="#c9e4f8"] ;
174 -> 175 ;
176 [label="WindGustDir_NW <= 0.5\ngini = 0.407\nsamples = 753\nvalue = [214.0, 539.0]\nclass = Yes", fillcolor="#88c4ef"] ;
175 -> 176 ;
177 [label="MaxTemp <= 0.489\ngini = 0.412\nsamples = 706\nvalue = [205, 501]\nclass = Yes", fillcolor="#8ac5f0"] ;
176 -> 177 ;
178 [label="Location_NorfolkIsland <= 0.5\ngini = 0.25\nsamples = 308\nvalue = [45, 263]\nclass = Yes", fillcolor="#5baee9"] ;
177 -> 178 ;
179 [label="Location_Albury <= 0.5\ngini = 0.246\nsamples = 306\nvalue = [44, 262]\nclass = Yes", fillcolor="#5aade9"] ;
178 -> 179 ;
180 [label="gini = 0.252\nsamples = 284\nvalue = [42, 242]\nclass = Yes", fillcolor="#5baeea"] ;
179 -> 180 ;
181 [label="gini = 0.165\nsamples = 22\nvalue = [2, 20]\nclass = Yes", fillcolor="#4da7e8"] ;
179 -> 181 ;
182 [label="WindDir9am_SSW <= 0.5\ngini = 0.5\nsamples = 2\nvalue = [1, 1]\nclass = No", fillcolor="#ffffff"] ;
178 -> 182 ;
183 [label="gini = 0.0\nsamples = 1\nvalue = [0, 1]\nclass = Yes", fillcolor="#399de5"] ;
182 -> 183 ;
184 [label="gini = 0.0\nsamples = 1\nvalue = [1, 0]\nclass = No", fillcolor="#e58139"] ;
182 -> 184 ;
185 [label="WindDir3pm_NE <= 0.5\ngini = 0.481\nsamples = 398\nvalue = [160, 238]\nclass = Yes", fillcolor="#bedff6"] ;
177 -> 185 ;
186 [label="Location_Hobart <= 0.5\ngini = 0.461\nsamples = 336\nvalue = [121.0, 215.0]\nclass = Yes", fillcolor="#a8d4f4"] ;
185 -> 186 ;
187 [label="gini = 0.46\nsamples = 335\nvalue = [120, 215]\nclass = Yes", fillcolor="#a8d4f4"] ;
186 -> 187 ;
188 [label="gini = 0.0\nsamples = 1\nvalue = [1, 0]\nclass = No", fillcolor="#e58139"] ;
186 -> 188 ;
189 [label="Location_Adelaide <= 0.5\ngini = 0.467\nsamples = 62\nvalue = [39, 23]\nclass = No", fillcolor="#f4cbae"] ;
185 -> 189 ;
190 [label="gini = 0.461\nsamples = 61\nvalue = [39, 22]\nclass = No", fillcolor="#f4c8a9"] ;
189 -> 190 ;
191 [label="gini = 0.0\nsamples = 1\nvalue = [0, 1]\nclass = Yes", fillcolor="#399de5"] ;
189 -> 191 ;
192 [label="Location_PerthAirport <= 0.5\ngini = 0.31\nsamples = 47\nvalue = [9, 38]\nclass = Yes", fillcolor="#68b4eb"] ;
176 -> 192 ;
193 [label="WindDir9am_E <= 0.5\ngini = 0.287\nsamples = 46\nvalue = [8, 38]\nclass = Yes", fillcolor="#63b2ea"] ;
192 -> 193 ;
194 [label="MinTemp <= 0.756\ngini = 0.263\nsamples = 45\nvalue = [7, 38]\nclass = Yes", fillcolor="#5dafea"] ;
193 -> 194 ;
195 [label="gini = 0.236\nsamples = 44\nvalue = [6, 38]\nclass = Yes", fillcolor="#58ace9"] ;
194 -> 195 ;
196 [label="gini = 0.0\nsamples = 1\nvalue = [1, 0]\nclass = No", fillcolor="#e58139"] ;
194 -> 196 ;
197 [label="gini = 0.0\nsamples = 1\nvalue = [1, 0]\nclass = No", fillcolor="#e58139"] ;
193 -> 197 ;
198 [label="gini = 0.0\nsamples = 1\nvalue = [1, 0]\nclass = No", fillcolor="#e58139"] ;
192 -> 198 ;
199 [label="Rainfall <= 0.001\ngini = 0.499\nsamples = 1965\nvalue = [931, 1034]\nclass = Yes", fillcolor="#ebf5fc"] ;
175 -> 199 ;
200 [label="Location_Newcastle <= 0.5\ngini = 0.5\nsamples = 1471\nvalue = [747.0, 724.0]\nclass = No", fillcolor="#fefbf9"] ;
199 -> 200 ;
201 [label="Location_Tuggeranong <= 0.5\ngini = 0.5\nsamples = 1401\nvalue = [718, 683]\nclass = No", fillcolor="#fef9f5"] ;
200 -> 201 ;
202 [label="Location_BadgerysCreek <= 0.5\ngini = 0.499\nsamples = 1369\nvalue = [710, 659]\nclass = No", fillcolor="#fdf6f1"] ;
201 -> 202 ;
203 [label="gini = 0.499\nsamples = 1307\nvalue = [689, 618]\nclass = No", fillcolor="#fcf2eb"] ;
202 -> 203 ;
204 [label="gini = 0.448\nsamples = 62\nvalue = [21, 41]\nclass = Yes", fillcolor="#9ecff2"] ;
202 -> 204 ;
205 [label="Pressure9am <= 0.598\ngini = 0.375\nsamples = 32\nvalue = [8, 24]\nclass = Yes", fillcolor="#7bbeee"] ;
201 -> 205 ;
206 [label="gini = 0.0\nsamples = 1\nvalue = [1, 0]\nclass = No", fillcolor="#e58139"] ;
205 -> 206 ;
207 [label="gini = 0.35\nsamples = 31\nvalue = [7, 24]\nclass = Yes", fillcolor="#73baed"] ;
205 -> 207 ;
208 [label="Year <= 0.25\ngini = 0.485\nsamples = 70\nvalue = [29.0, 41.0]\nclass = Yes", fillcolor="#c5e2f7"] ;
200 -> 208 ;
209 [label="WindDir3pm_SW <= 0.5\ngini = 0.484\nsamples = 17\nvalue = [10, 7]\nclass = No", fillcolor="#f7d9c4"] ;
208 -> 209 ;
210 [label="gini = 0.444\nsamples = 15\nvalue = [10, 5]\nclass = No", fillcolor="#f2c09c"] ;
209 -> 210 ;
211 [label="gini = 0.0\nsamples = 2\nvalue = [0, 2]\nclass = Yes", fillcolor="#399de5"] ;
209 -> 211 ;
212 [label="WindDir9am_S <= 0.5\ngini = 0.46\nsamples = 53\nvalue = [19, 34]\nclass = Yes", fillcolor="#a8d4f4"] ;
208 -> 212 ;
213 [label="gini = 0.464\nsamples = 52\nvalue = [19, 33]\nclass = Yes", fillcolor="#abd5f4"] ;
212 -> 213 ;
214 [label="gini = 0.0\nsamples = 1\nvalue = [0, 1]\nclass = Yes", fillcolor="#399de5"] ;
212 -> 214 ;
215 [label="WindDir9am_WNW <= 0.5\ngini = 0.467\nsamples = 494\nvalue = [184, 310]\nclass = Yes", fillcolor="#afd7f4"] ;
199 -> 215 ;
216 [label="WindDir3pm_WNW <= 0.5\ngini = 0.472\nsamples = 461\nvalue = [176, 285]\nclass = Yes", fillcolor="#b3daf5"] ;
215 -> 216 ;
217 [label="Temp9am <= 0.336\ngini = 0.467\nsamples = 439\nvalue = [163, 276]\nclass = Yes", fillcolor="#aed7f4"] ;
216 -> 217 ;
218 [label="gini = 0.482\nsamples = 99\nvalue = [59.0, 40.0]\nclass = No", fillcolor="#f7d6bf"] ;
217 -> 218 ;
219 [label="gini = 0.425\nsamples = 340\nvalue = [104.0, 236.0]\nclass = Yes", fillcolor="#90c8f0"] ;
217 -> 219 ;
220 [label="WindGustDir_NW <= 0.5\ngini = 0.483\nsamples = 22\nvalue = [13, 9]\nclass = No", fillcolor="#f7d8c2"] ;
216 -> 220 ;
221 [label="gini = 0.49\nsamples = 21\nvalue = [12, 9]\nclass = No", fillcolor="#f8e0ce"] ;
220 -> 221 ;
222 [label="gini = 0.0\nsamples = 1\nvalue = [1, 0]\nclass = No", fillcolor="#e58139"] ;
220 -> 222 ;
223 [label="WindDir3pm_NNE <= 0.5\ngini = 0.367\nsamples = 33\nvalue = [8, 25]\nclass = Yes", fillcolor="#78bced"] ;
215 -> 223 ;
224 [label="MaxTemp <= 0.468\ngini = 0.35\nsamples = 31\nvalue = [7, 24]\nclass = Yes", fillcolor="#73baed"] ;
223 -> 224 ;
225 [label="gini = 0.403\nsamples = 25\nvalue = [7.0, 18.0]\nclass = Yes", fillcolor="#86c3ef"] ;
224 -> 225 ;
226 [label="gini = 0.0\nsamples = 6\nvalue = [0, 6]\nclass = Yes", fillcolor="#399de5"] ;
224 -> 226 ;
227 [label="Cloud9am <= 0.5\ngini = 0.5\nsamples = 2\nvalue = [1, 1]\nclass = No", fillcolor="#ffffff"] ;
223 -> 227 ;
228 [label="gini = 0.0\nsamples = 1\nvalue = [1, 0]\nclass = No", fillcolor="#e58139"] ;
227 -> 228 ;
229 [label="gini = 0.0\nsamples = 1\nvalue = [0, 1]\nclass = Yes", fillcolor="#399de5"] ;
227 -> 229 ;
230 [label="Month <= 0.045\ngini = 0.337\nsamples = 14\nvalue = [3, 11]\nclass = Yes", fillcolor="#6fb8ec"] ;
174 -> 230 ;
231 [label="gini = 0.0\nsamples = 1\nvalue = [0, 1]\nclass = Yes", fillcolor="#399de5"] ;
230 -> 231 ;
232 [label="WindGustDir_E <= 0.5\ngini = 0.355\nsamples = 13\nvalue = [3, 10]\nclass = Yes", fillcolor="#74baed"] ;
230 -> 232 ;
233 [label="Month <= 0.545\ngini = 0.375\nsamples = 12\nvalue = [3, 9]\nclass = Yes", fillcolor="#7bbeee"] ;
232 -> 233 ;
234 [label="WindGustSpeed <= 0.233\ngini = 0.397\nsamples = 11\nvalue = [3, 8]\nclass = Yes", fillcolor="#83c2ef"] ;
233 -> 234 ;
235 [label="gini = 0.0\nsamples = 3\nvalue = [0, 3]\nclass = Yes", fillcolor="#399de5"] ;
234 -> 235 ;
236 [label="Day <= 0.083\ngini = 0.469\nsamples = 8\nvalue = [3, 5]\nclass = Yes", fillcolor="#b0d8f5"] ;
234 -> 236 ;
237 [label="gini = 0.0\nsamples = 1\nvalue = [1, 0]\nclass = No", fillcolor="#e58139"] ;
236 -> 237 ;
238 [label="gini = 0.408\nsamples = 7\nvalue = [2, 5]\nclass = Yes", fillcolor="#88c4ef"] ;
236 -> 238 ;
239 [label="gini = 0.0\nsamples = 1\nvalue = [0, 1]\nclass = Yes", fillcolor="#399de5"] ;
233 -> 239 ;
240 [label="gini = 0.0\nsamples = 1\nvalue = [0, 1]\nclass = Yes", fillcolor="#399de5"] ;
232 -> 240 ;
241 [label="WindDir9am_ESE <= 0.5\ngini = 0.18\nsamples = 20\nvalue = [2, 18]\nclass = Yes", fillcolor="#4fa8e8"] ;
173 -> 241 ;
242 [label="WindGustDir_ENE <= 0.5\ngini = 0.198\nsamples = 18\nvalue = [2, 16]\nclass = Yes", fillcolor="#52a9e8"] ;
241 -> 242 ;
243 [label="Pressure9am <= 0.445\ngini = 0.124\nsamples = 15\nvalue = [1, 14]\nclass = Yes", fillcolor="#47a4e7"] ;
242 -> 243 ;
244 [label="gini = 0.0\nsamples = 1\nvalue = [1, 0]\nclass = No", fillcolor="#e58139"] ;
243 -> 244 ;
245 [label="gini = 0.0\nsamples = 14\nvalue = [0, 14]\nclass = Yes", fillcolor="#399de5"] ;
243 -> 245 ;
246 [label="WindSpeed9am <= 0.112\ngini = 0.444\nsamples = 3\nvalue = [1, 2]\nclass = Yes", fillcolor="#9ccef2"] ;
242 -> 246 ;
247 [label="gini = 0.0\nsamples = 2\nvalue = [0, 2]\nclass = Yes", fillcolor="#399de5"] ;
246 -> 247 ;
248 [label="gini = 0.0\nsamples = 1\nvalue = [1, 0]\nclass = No", fillcolor="#e58139"] ;
246 -> 248 ;
249 [label="gini = 0.0\nsamples = 2\nvalue = [0, 2]\nclass = Yes", fillcolor="#399de5"] ;
241 -> 249 ;
250 [label="WindDir3pm_S <= 0.5\ngini = 0.369\nsamples = 1563\nvalue = [1182, 381]\nclass = No", fillcolor="#edaa79"] ;
0 -> 250 [labeldistance=2.5, labelangle=-45, headlabel="False"] ;
251 [label="Temp3pm <= 0.423\ngini = 0.386\nsamples = 1384\nvalue = [1023, 361]\nclass = No", fillcolor="#eead7f"] ;
250 -> 251 ;
252 [label="Year <= 0.75\ngini = 0.499\nsamples = 277\nvalue = [145, 132]\nclass = No", fillcolor="#fdf4ed"] ;
251 -> 252 ;
253 [label="Month <= 0.682\ngini = 0.495\nsamples = 186\nvalue = [102.0, 84.0]\nclass = No", fillcolor="#fae9dc"] ;
252 -> 253 ;
254 [label="WindSpeed3pm <= 0.184\ngini = 0.5\nsamples = 125\nvalue = [62, 63]\nclass = Yes", fillcolor="#fcfdff"] ;
253 -> 254 ;
255 [label="WindDir3pm_N <= 0.5\ngini = 0.455\nsamples = 77\nvalue = [50, 27]\nclass = No", fillcolor="#f3c5a4"] ;
254 -> 255 ;
256 [label="WindDir9am_N <= 0.5\ngini = 0.448\nsamples = 71\nvalue = [47, 24]\nclass = No", fillcolor="#f2c19e"] ;
255 -> 256 ;
257 [label="Month <= 0.409\ngini = 0.477\nsamples = 51\nvalue = [31.0, 20.0]\nclass = No", fillcolor="#f6d2b9"] ;
256 -> 257 ;
258 [label="gini = 0.48\nsamples = 10\nvalue = [4, 6]\nclass = Yes", fillcolor="#bddef6"] ;
257 -> 258 ;
259 [label="gini = 0.45\nsamples = 41\nvalue = [27.0, 14.0]\nclass = No", fillcolor="#f2c2a0"] ;
257 -> 259 ;
260 [label="Humidity9am <= 0.695\ngini = 0.32\nsamples = 20\nvalue = [16, 4]\nclass = No", fillcolor="#eca06a"] ;
256 -> 260 ;
261 [label="gini = 0.375\nsamples = 4\nvalue = [1, 3]\nclass = Yes", fillcolor="#7bbeee"] ;
260 -> 261 ;
262 [label="gini = 0.117\nsamples = 16\nvalue = [15, 1]\nclass = No", fillcolor="#e78946"] ;
260 -> 262 ;
263 [label="WindSpeed3pm <= 0.086\ngini = 0.5\nsamples = 6\nvalue = [3, 3]\nclass = No", fillcolor="#ffffff"] ;
255 -> 263 ;
264 [label="gini = 0.0\nsamples = 1\nvalue = [1, 0]\nclass = No", fillcolor="#e58139"] ;
263 -> 264 ;
265 [label="Humidity9am <= 0.64\ngini = 0.48\nsamples = 5\nvalue = [2, 3]\nclass = Yes", fillcolor="#bddef6"] ;
263 -> 265 ;
266 [label="gini = 0.0\nsamples = 1\nvalue = [1, 0]\nclass = No", fillcolor="#e58139"] ;
265 -> 266 ;
267 [label="gini = 0.375\nsamples = 4\nvalue = [1, 3]\nclass = Yes", fillcolor="#7bbeee"] ;
265 -> 267 ;
268 [label="WindGustSpeed <= 0.217\ngini = 0.375\nsamples = 48\nvalue = [12, 36]\nclass = Yes", fillcolor="#7bbeee"] ;
254 -> 268 ;
269 [label="Rainfall <= 0.002\ngini = 0.444\nsamples = 6\nvalue = [4, 2]\nclass = No", fillcolor="#f2c09c"] ;
268 -> 269 ;
270 [label="Temp9am <= 0.397\ngini = 0.5\nsamples = 4\nvalue = [2, 2]\nclass = No", fillcolor="#ffffff"] ;
269 -> 270 ;
271 [label="gini = 0.0\nsamples = 2\nvalue = [2, 0]\nclass = No", fillcolor="#e58139"] ;
270 -> 271 ;
272 [label="gini = 0.0\nsamples = 2\nvalue = [0, 2]\nclass = Yes", fillcolor="#399de5"] ;
270 -> 272 ;
273 [label="gini = 0.0\nsamples = 2\nvalue = [2, 0]\nclass = No", fillcolor="#e58139"] ;
269 -> 273 ;
274 [label="WindSpeed9am <= 0.223\ngini = 0.308\nsamples = 42\nvalue = [8, 34]\nclass = Yes", fillcolor="#68b4eb"] ;
268 -> 274 ;
275 [label="Humidity9am <= 0.685\ngini = 0.283\nsamples = 41\nvalue = [7.0, 34.0]\nclass = Yes", fillcolor="#62b1ea"] ;
274 -> 275 ;
276 [label="gini = 0.5\nsamples = 6\nvalue = [3, 3]\nclass = No", fillcolor="#ffffff"] ;
275 -> 276 ;
277 [label="gini = 0.202\nsamples = 35\nvalue = [4, 31]\nclass = Yes", fillcolor="#53aae8"] ;
275 -> 277 ;
278 [label="gini = 0.0\nsamples = 1\nvalue = [1, 0]\nclass = No", fillcolor="#e58139"] ;
274 -> 278 ;
279 [label="WindSpeed9am <= 0.05\ngini = 0.451\nsamples = 61\nvalue = [40, 21]\nclass = No", fillcolor="#f3c3a1"] ;
253 -> 279 ;
280 [label="gini = 0.0\nsamples = 6\nvalue = [6, 0]\nclass = No", fillcolor="#e58139"] ;
279 -> 280 ;
281 [label="WindGustDir_SSW <= 0.5\ngini = 0.472\nsamples = 55\nvalue = [34, 21]\nclass = No", fillcolor="#f5cfb3"] ;
279 -> 281 ;
282 [label="Pressure9am <= 0.55\ngini = 0.449\nsamples = 50\nvalue = [33, 17]\nclass = No", fillcolor="#f2c29f"] ;
281 -> 282 ;
283 [label="WindDir9am_W <= 0.5\ngini = 0.219\nsamples = 8\nvalue = [1, 7]\nclass = Yes", fillcolor="#55abe9"] ;
282 -> 283 ;
284 [label="gini = 0.245\nsamples = 7\nvalue = [1, 6]\nclass = Yes", fillcolor="#5aade9"] ;
283 -> 284 ;
285 [label="gini = 0.0\nsamples = 1\nvalue = [0, 1]\nclass = Yes", fillcolor="#399de5"] ;
283 -> 285 ;
286 [label="WindDir3pm_NE <= 0.5\ngini = 0.363\nsamples = 42\nvalue = [32, 10]\nclass = No", fillcolor="#eda877"] ;
282 -> 286 ;
287 [label="gini = 0.343\nsamples = 41\nvalue = [32, 9]\nclass = No", fillcolor="#eca471"] ;
286 -> 287 ;
288 [label="gini = 0.0\nsamples = 1\nvalue = [0, 1]\nclass = Yes", fillcolor="#399de5"] ;
286 -> 288 ;
289 [label="WindDir3pm_SSW <= 0.5\ngini = 0.32\nsamples = 5\nvalue = [1, 4]\nclass = Yes", fillcolor="#6ab6ec"] ;
281 -> 289 ;
290 [label="WindDir9am_SSE <= 0.5\ngini = 0.444\nsamples = 3\nvalue = [1, 2]\nclass = Yes", fillcolor="#9ccef2"] ;
289 -> 290 ;
291 [label="gini = 0.5\nsamples = 2\nvalue = [1, 1]\nclass = No", fillcolor="#ffffff"] ;
290 -> 291 ;
292 [label="gini = 0.0\nsamples = 1\nvalue = [0, 1]\nclass = Yes", fillcolor="#399de5"] ;
290 -> 292 ;
293 [label="gini = 0.0\nsamples = 2\nvalue = [0, 2]\nclass = Yes", fillcolor="#399de5"] ;
289 -> 293 ;
294 [label="MinTemp <= 0.342\ngini = 0.498\nsamples = 91\nvalue = [43, 48]\nclass = Yes", fillcolor="#eaf5fc"] ;
252 -> 294 ;
295 [label="WindDir3pm_ENE <= 0.5\ngini = 0.165\nsamples = 11\nvalue = [10, 1]\nclass = No", fillcolor="#e88e4d"] ;
294 -> 295 ;
296 [label="WindGustSpeed <= 0.341\ngini = 0.18\nsamples = 10\nvalue = [9, 1]\nclass = No", fillcolor="#e88f4f"] ;
295 -> 296 ;
297 [label="gini = 0.0\nsamples = 9\nvalue = [9, 0]\nclass = No", fillcolor="#e58139"] ;
296 -> 297 ;
298 [label="gini = 0.0\nsamples = 1\nvalue = [0, 1]\nclass = Yes", fillcolor="#399de5"] ;
296 -> 298 ;
299 [label="gini = 0.0\nsamples = 1\nvalue = [1, 0]\nclass = No", fillcolor="#e58139"] ;
295 -> 299 ;
300 [label="MinTemp <= 0.468\ngini = 0.485\nsamples = 80\nvalue = [33, 47]\nclass = Yes", fillcolor="#c4e2f7"] ;
294 -> 300 ;
301 [label="Pressure9am <= 0.679\ngini = 0.499\nsamples = 61\nvalue = [29, 32]\nclass = Yes", fillcolor="#ecf6fd"] ;
300 -> 301 ;
302 [label="Humidity9am <= 0.875\ngini = 0.328\nsamples = 29\nvalue = [6, 23]\nclass = Yes", fillcolor="#6db7ec"] ;
301 -> 302 ;
303 [label="WindDir3pm_W <= 0.5\ngini = 0.219\nsamples = 24\nvalue = [3, 21]\nclass = Yes", fillcolor="#55abe9"] ;
302 -> 303 ;
304 [label="gini = 0.255\nsamples = 20\nvalue = [3, 17]\nclass = Yes", fillcolor="#5caeea"] ;
303 -> 304 ;
305 [label="gini = 0.0\nsamples = 4\nvalue = [0, 4]\nclass = Yes", fillcolor="#399de5"] ;
303 -> 305 ;
306 [label="RainToday <= 0.5\ngini = 0.48\nsamples = 5\nvalue = [3, 2]\nclass = No", fillcolor="#f6d5bd"] ;
302 -> 306 ;
307 [label="gini = 0.5\nsamples = 4\nvalue = [2, 2]\nclass = No", fillcolor="#ffffff"] ;
306 -> 307 ;
308 [label="gini = 0.0\nsamples = 1\nvalue = [1, 0]\nclass = No", fillcolor="#e58139"] ;
306 -> 308 ;
309 [label="Humidity3pm <= 0.835\ngini = 0.404\nsamples = 32\nvalue = [23, 9]\nclass = No", fillcolor="#efb286"] ;
301 -> 309 ;
310 [label="WindGustDir_NW <= 0.5\ngini = 0.293\nsamples = 28\nvalue = [23, 5]\nclass = No", fillcolor="#eb9c64"] ;
309 -> 310 ;
311 [label="gini = 0.34\nsamples = 23\nvalue = [18, 5]\nclass = No", fillcolor="#eca470"] ;
310 -> 311 ;
312 [label="gini = 0.0\nsamples = 5\nvalue = [5, 0]\nclass = No", fillcolor="#e58139"] ;
310 -> 312 ;
313 [label="gini = 0.0\nsamples = 4\nvalue = [0, 4]\nclass = Yes", fillcolor="#399de5"] ;
309 -> 313 ;
314 [label="WindGustDir_SSE <= 0.5\ngini = 0.332\nsamples = 19\nvalue = [4, 15]\nclass = Yes", fillcolor="#6eb7ec"] ;
300 -> 314 ;
315 [label="Pressure3pm <= 0.798\ngini = 0.278\nsamples = 18\nvalue = [3, 15]\nclass = Yes", fillcolor="#61b1ea"] ;
314 -> 315 ;
316 [label="Pressure3pm <= 0.704\ngini = 0.117\nsamples = 16\nvalue = [1, 15]\nclass = Yes", fillcolor="#46a4e7"] ;
315 -> 316 ;
317 [label="gini = 0.0\nsamples = 11\nvalue = [0, 11]\nclass = Yes", fillcolor="#399de5"] ;
316 -> 317 ;
318 [label="gini = 0.32\nsamples = 5\nvalue = [1, 4]\nclass = Yes", fillcolor="#6ab6ec"] ;
316 -> 318 ;
319 [label="gini = 0.0\nsamples = 2\nvalue = [2, 0]\nclass = No", fillcolor="#e58139"] ;
315 -> 319 ;
320 [label="gini = 0.0\nsamples = 1\nvalue = [1, 0]\nclass = No", fillcolor="#e58139"] ;
314 -> 320 ;
321 [label="Pressure9am <= 0.566\ngini = 0.328\nsamples = 1107\nvalue = [878.0, 229.0]\nclass = No", fillcolor="#eca26d"] ;
251 -> 321 ;
322 [label="WindDir3pm_SSE <= 0.5\ngini = 0.478\nsamples = 312\nvalue = [189, 123]\nclass = No", fillcolor="#f6d3ba"] ;
321 -> 322 ;
323 [label="WindDir3pm_NNE <= 0.5\ngini = 0.495\nsamples = 252\nvalue = [138, 114]\nclass = No", fillcolor="#fae9dd"] ;
322 -> 323 ;
324 [label="WindDir3pm_NNW <= 0.5\ngini = 0.495\nsamples = 247\nvalue = [136, 111]\nclass = No", fillcolor="#fae8db"] ;
323 -> 324 ;
325 [label="Humidity9am <= 0.735\ngini = 0.492\nsamples = 241\nvalue = [136, 105]\nclass = No", fillcolor="#f9e2d2"] ;
324 -> 325 ;
326 [label="WindGustDir_SW <= 0.5\ngini = 0.438\nsamples = 133\nvalue = [90, 43]\nclass = No", fillcolor="#f1bd98"] ;
325 -> 326 ;
327 [label="gini = 0.443\nsamples = 130\nvalue = [87, 43]\nclass = No", fillcolor="#f2bf9b"] ;
326 -> 327 ;
328 [label="gini = 0.0\nsamples = 3\nvalue = [3, 0]\nclass = No", fillcolor="#e58139"] ;
326 -> 328 ;
329 [label="WindGustDir_WNW <= 0.5\ngini = 0.489\nsamples = 108\nvalue = [46, 62]\nclass = Yes", fillcolor="#cce6f8"] ;
325 -> 329 ;
330 [label="gini = 0.499\nsamples = 89\nvalue = [43.0, 46.0]\nclass = Yes", fillcolor="#f2f9fd"] ;
329 -> 330 ;
331 [label="gini = 0.266\nsamples = 19\nvalue = [3, 16]\nclass = Yes", fillcolor="#5eafea"] ;
329 -> 331 ;
332 [label="gini = 0.0\nsamples = 6\nvalue = [0, 6]\nclass = Yes", fillcolor="#399de5"] ;
324 -> 332 ;
333 [label="WindGustDir_NNE <= 0.5\ngini = 0.48\nsamples = 5\nvalue = [2, 3]\nclass = Yes", fillcolor="#bddef6"] ;
323 -> 333 ;
334 [label="WindSpeed3pm <= 0.092\ngini = 0.375\nsamples = 4\nvalue = [1, 3]\nclass = Yes", fillcolor="#7bbeee"] ;
333 -> 334 ;
335 [label="gini = 0.0\nsamples = 1\nvalue = [1, 0]\nclass = No", fillcolor="#e58139"] ;
334 -> 335 ;
336 [label="gini = 0.0\nsamples = 3\nvalue = [0, 3]\nclass = Yes", fillcolor="#399de5"] ;
334 -> 336 ;
337 [label="gini = 0.0\nsamples = 1\nvalue = [1, 0]\nclass = No", fillcolor="#e58139"] ;
333 -> 337 ;
338 [label="Temp3pm <= 0.573\ngini = 0.255\nsamples = 60\nvalue = [51, 9]\nclass = No", fillcolor="#ea975c"] ;
322 -> 338 ;
339 [label="Temp9am <= 0.635\ngini = 0.325\nsamples = 44\nvalue = [35, 9]\nclass = No", fillcolor="#eca16c"] ;
338 -> 339 ;
340 [label="WindDir9am_E <= 0.5\ngini = 0.25\nsamples = 41\nvalue = [35, 6]\nclass = No", fillcolor="#e9975b"] ;
339 -> 340 ;
341 [label="Humidity3pm <= 0.625\ngini = 0.224\nsamples = 39\nvalue = [34, 5]\nclass = No", fillcolor="#e99456"] ;
340 -> 341 ;
342 [label="gini = 0.355\nsamples = 13\nvalue = [10, 3]\nclass = No", fillcolor="#eda774"] ;
341 -> 342 ;
343 [label="gini = 0.142\nsamples = 26\nvalue = [24, 2]\nclass = No", fillcolor="#e78c49"] ;
341 -> 343 ;
344 [label="WindGustSpeed <= 0.26\ngini = 0.5\nsamples = 2\nvalue = [1, 1]\nclass = No", fillcolor="#ffffff"] ;
340 -> 344 ;
345 [label="gini = 0.0\nsamples = 1\nvalue = [1, 0]\nclass = No", fillcolor="#e58139"] ;
344 -> 345 ;
346 [label="gini = 0.0\nsamples = 1\nvalue = [0, 1]\nclass = Yes", fillcolor="#399de5"] ;
344 -> 346 ;
347 [label="gini = 0.0\nsamples = 3\nvalue = [0, 3]\nclass = Yes", fillcolor="#399de5"] ;
339 -> 347 ;
348 [label="gini = 0.0\nsamples = 16\nvalue = [16, 0]\nclass = No", fillcolor="#e58139"] ;
338 -> 348 ;
349 [label="Humidity9am <= 0.765\ngini = 0.231\nsamples = 795\nvalue = [689, 106]\nclass = No", fillcolor="#e99457"] ;
321 -> 349 ;
350 [label="Day <= 0.95\ngini = 0.171\nsamples = 551\nvalue = [499.0, 52.0]\nclass = No", fillcolor="#e88e4e"] ;
349 -> 350 ;
351 [label="WindDir3pm_NNW <= 0.5\ngini = 0.159\nsamples = 528\nvalue = [482, 46]\nclass = No", fillcolor="#e78d4c"] ;
350 -> 351 ;
352 [label="WindDir3pm_NW <= 0.5\ngini = 0.151\nsamples = 512\nvalue = [470, 42]\nclass = No", fillcolor="#e78c4b"] ;
351 -> 352 ;
353 [label="WindDir3pm_WNW <= 0.5\ngini = 0.125\nsamples = 494\nvalue = [461, 33]\nclass = No", fillcolor="#e78a47"] ;
352 -> 353 ;
354 [label="gini = 0.114\nsamples = 478\nvalue = [449, 29]\nclass = No", fillcolor="#e78946"] ;
353 -> 354 ;
355 [label="gini = 0.375\nsamples = 16\nvalue = [12, 4]\nclass = No", fillcolor="#eeab7b"] ;
353 -> 355 ;
356 [label="Month <= 0.682\ngini = 0.5\nsamples = 18\nvalue = [9, 9]\nclass = No", fillcolor="#ffffff"] ;
352 -> 356 ;
357 [label="gini = 0.49\nsamples = 14\nvalue = [8, 6]\nclass = No", fillcolor="#f8e0ce"] ;
356 -> 357 ;
358 [label="gini = 0.375\nsamples = 4\nvalue = [1, 3]\nclass = Yes", fillcolor="#7bbeee"] ;
356 -> 358 ;
359 [label="WindGustDir_ENE <= 0.5\ngini = 0.375\nsamples = 16\nvalue = [12, 4]\nclass = No", fillcolor="#eeab7b"] ;
351 -> 359 ;
360 [label="Temp9am <= 0.417\ngini = 0.391\nsamples = 15\nvalue = [11, 4]\nclass = No", fillcolor="#eeaf81"] ;
359 -> 360 ;
361 [label="gini = 0.5\nsamples = 4\nvalue = [2, 2]\nclass = No", fillcolor="#ffffff"] ;
360 -> 361 ;
362 [label="gini = 0.298\nsamples = 11\nvalue = [9, 2]\nclass = No", fillcolor="#eb9d65"] ;
360 -> 362 ;
363 [label="gini = 0.0\nsamples = 1\nvalue = [1, 0]\nclass = No", fillcolor="#e58139"] ;
359 -> 363 ;
364 [label="WindSpeed3pm <= 0.184\ngini = 0.386\nsamples = 23\nvalue = [17, 6]\nclass = No", fillcolor="#eead7f"] ;
350 -> 364 ;
365 [label="Month <= 0.409\ngini = 0.496\nsamples = 11\nvalue = [5, 6]\nclass = Yes", fillcolor="#deeffb"] ;
364 -> 365 ;
366 [label="WindGustSpeed <= 0.19\ngini = 0.408\nsamples = 7\nvalue = [2, 5]\nclass = Yes", fillcolor="#88c4ef"] ;
365 -> 366 ;
367 [label="gini = 0.0\nsamples = 2\nvalue = [2, 0]\nclass = No", fillcolor="#e58139"] ;
366 -> 367 ;
368 [label="gini = 0.0\nsamples = 5\nvalue = [0, 5]\nclass = Yes", fillcolor="#399de5"] ;
366 -> 368 ;
369 [label="Rainfall <= 0.0\ngini = 0.375\nsamples = 4\nvalue = [3, 1]\nclass = No", fillcolor="#eeab7b"] ;
365 -> 369 ;
370 [label="gini = 0.444\nsamples = 3\nvalue = [2, 1]\nclass = No", fillcolor="#f2c09c"] ;
369 -> 370 ;
371 [label="gini = 0.0\nsamples = 1\nvalue = [1, 0]\nclass = No", fillcolor="#e58139"] ;
369 -> 371 ;
372 [label="gini = 0.0\nsamples = 12\nvalue = [12, 0]\nclass = No", fillcolor="#e58139"] ;
364 -> 372 ;
373 [label="WindGustDir_SSW <= 0.5\ngini = 0.345\nsamples = 244\nvalue = [190, 54]\nclass = No", fillcolor="#eca571"] ;
349 -> 373 ;
374 [label="WindDir9am_NE <= 0.5\ngini = 0.358\nsamples = 223\nvalue = [171, 52]\nclass = No", fillcolor="#eda775"] ;
373 -> 374 ;
375 [label="MaxTemp <= 0.441\ngini = 0.375\nsamples = 204\nvalue = [153, 51]\nclass = No", fillcolor="#eeab7b"] ;
374 -> 375 ;
376 [label="Pressure9am <= 0.636\ngini = 0.245\nsamples = 28\nvalue = [24, 4]\nclass = No", fillcolor="#e9965a"] ;
375 -> 376 ;
377 [label="gini = 0.5\nsamples = 6\nvalue = [3, 3]\nclass = No", fillcolor="#ffffff"] ;
376 -> 377 ;
378 [label="gini = 0.087\nsamples = 22\nvalue = [21, 1]\nclass = No", fillcolor="#e68742"] ;
376 -> 378 ;
379 [label="WindGustDir_WNW <= 0.5\ngini = 0.391\nsamples = 176\nvalue = [129, 47]\nclass = No", fillcolor="#eeaf81"] ;
375 -> 379 ;
380 [label="gini = 0.378\nsamples = 162\nvalue = [121, 41]\nclass = No", fillcolor="#eeac7c"] ;
379 -> 380 ;
381 [label="gini = 0.49\nsamples = 14\nvalue = [8, 6]\nclass = No", fillcolor="#f8e0ce"] ;
379 -> 381 ;
382 [label="MaxTemp <= 0.445\ngini = 0.1\nsamples = 19\nvalue = [18, 1]\nclass = No", fillcolor="#e68844"] ;
374 -> 382 ;
383 [label="MinTemp <= 0.42\ngini = 0.32\nsamples = 5\nvalue = [4, 1]\nclass = No", fillcolor="#eca06a"] ;
382 -> 383 ;
384 [label="gini = 0.0\nsamples = 4\nvalue = [4, 0]\nclass = No", fillcolor="#e58139"] ;
383 -> 384 ;
385 [label="gini = 0.0\nsamples = 1\nvalue = [0, 1]\nclass = Yes", fillcolor="#399de5"] ;
383 -> 385 ;
386 [label="gini = 0.0\nsamples = 14\nvalue = [14, 0]\nclass = No", fillcolor="#e58139"] ;
382 -> 386 ;
387 [label="WindGustSpeed <= 0.24\ngini = 0.172\nsamples = 21\nvalue = [19, 2]\nclass = No", fillcolor="#e88e4e"] ;
373 -> 387 ;
388 [label="WindDir3pm_SSE <= 0.5\ngini = 0.1\nsamples = 19\nvalue = [18, 1]\nclass = No", fillcolor="#e68844"] ;
387 -> 388 ;
389 [label="Temp9am <= 0.469\ngini = 0.165\nsamples = 11\nvalue = [10, 1]\nclass = No", fillcolor="#e88e4d"] ;
388 -> 389 ;
390 [label="gini = 0.375\nsamples = 4\nvalue = [3, 1]\nclass = No", fillcolor="#eeab7b"] ;
389 -> 390 ;
391 [label="gini = 0.0\nsamples = 7\nvalue = [7, 0]\nclass = No", fillcolor="#e58139"] ;
389 -> 391 ;
392 [label="gini = 0.0\nsamples = 8\nvalue = [8, 0]\nclass = No", fillcolor="#e58139"] ;
388 -> 392 ;
393 [label="WindDir3pm_SE <= 0.5\ngini = 0.5\nsamples = 2\nvalue = [1, 1]\nclass = No", fillcolor="#ffffff"] ;
387 -> 393 ;
394 [label="gini = 0.0\nsamples = 1\nvalue = [1, 0]\nclass = No", fillcolor="#e58139"] ;
393 -> 394 ;
395 [label="gini = 0.0\nsamples = 1\nvalue = [0, 1]\nclass = Yes", fillcolor="#399de5"] ;
393 -> 395 ;
396 [label="MaxTemp <= 0.437\ngini = 0.198\nsamples = 179\nvalue = [159, 20]\nclass = No", fillcolor="#e89152"] ;
250 -> 396 ;
397 [label="WindDir9am_SSW <= 0.5\ngini = 0.498\nsamples = 15\nvalue = [8, 7]\nclass = No", fillcolor="#fcefe6"] ;
396 -> 397 ;
398 [label="WindSpeed3pm <= 0.115\ngini = 0.497\nsamples = 13\nvalue = [6, 7]\nclass = Yes", fillcolor="#e3f1fb"] ;
397 -> 398 ;
399 [label="gini = 0.0\nsamples = 4\nvalue = [0, 4]\nclass = Yes", fillcolor="#399de5"] ;
398 -> 399 ;
400 [label="WindSpeed3pm <= 0.184\ngini = 0.444\nsamples = 9\nvalue = [6, 3]\nclass = No", fillcolor="#f2c09c"] ;
398 -> 400 ;
401 [label="WindGustDir_SSW <= 0.5\ngini = 0.245\nsamples = 7\nvalue = [6, 1]\nclass = No", fillcolor="#e9965a"] ;
400 -> 401 ;
402 [label="gini = 0.0\nsamples = 4\nvalue = [4, 0]\nclass = No", fillcolor="#e58139"] ;
401 -> 402 ;
403 [label="Humidity3pm <= 0.695\ngini = 0.444\nsamples = 3\nvalue = [2, 1]\nclass = No", fillcolor="#f2c09c"] ;
401 -> 403 ;
404 [label="gini = 0.0\nsamples = 2\nvalue = [2, 0]\nclass = No", fillcolor="#e58139"] ;
403 -> 404 ;
405 [label="gini = 0.0\nsamples = 1\nvalue = [0, 1]\nclass = Yes", fillcolor="#399de5"] ;
403 -> 405 ;
406 [label="gini = 0.0\nsamples = 2\nvalue = [0, 2]\nclass = Yes", fillcolor="#399de5"] ;
400 -> 406 ;
407 [label="gini = 0.0\nsamples = 2\nvalue = [2, 0]\nclass = No", fillcolor="#e58139"] ;
397 -> 407 ;
408 [label="WindDir9am_S <= 0.5\ngini = 0.146\nsamples = 164\nvalue = [151, 13]\nclass = No", fillcolor="#e78c4a"] ;
396 -> 408 ;
409 [label="WindGustDir_SSE <= 0.5\ngini = 0.128\nsamples = 145\nvalue = [135, 10]\nclass = No", fillcolor="#e78a48"] ;
408 -> 409 ;
410 [label="Day <= 0.783\ngini = 0.136\nsamples = 136\nvalue = [126, 10]\nclass = No", fillcolor="#e78b49"] ;
409 -> 410 ;
411 [label="MinTemp <= 0.654\ngini = 0.107\nsamples = 106\nvalue = [100, 6]\nclass = No", fillcolor="#e78945"] ;
410 -> 411 ;
412 [label="Rainfall <= 0.0\ngini = 0.092\nsamples = 104\nvalue = [99, 5]\nclass = No", fillcolor="#e68743"] ;
411 -> 412 ;
413 [label="Temp9am <= 0.596\ngini = 0.051\nsamples = 77\nvalue = [75, 2]\nclass = No", fillcolor="#e6843e"] ;
412 -> 413 ;
414 [label="gini = 0.0\nsamples = 53\nvalue = [53, 0]\nclass = No", fillcolor="#e58139"] ;
413 -> 414 ;
415 [label="gini = 0.153\nsamples = 24\nvalue = [22, 2]\nclass = No", fillcolor="#e78c4b"] ;
413 -> 415 ;
416 [label="MaxTemp <= 0.495\ngini = 0.198\nsamples = 27\nvalue = [24, 3]\nclass = No", fillcolor="#e89152"] ;
412 -> 416 ;
417 [label="gini = 0.0\nsamples = 13\nvalue = [13, 0]\nclass = No", fillcolor="#e58139"] ;
416 -> 417 ;
418 [label="gini = 0.337\nsamples = 14\nvalue = [11, 3]\nclass = No", fillcolor="#eca36f"] ;
416 -> 418 ;
419 [label="WindGustDir_SE <= 0.5\ngini = 0.5\nsamples = 2\nvalue = [1, 1]\nclass = No", fillcolor="#ffffff"] ;
411 -> 419 ;
420 [label="gini = 0.0\nsamples = 1\nvalue = [1, 0]\nclass = No", fillcolor="#e58139"] ;
419 -> 420 ;
421 [label="gini = 0.0\nsamples = 1\nvalue = [0, 1]\nclass = Yes", fillcolor="#399de5"] ;
419 -> 421 ;
422 [label="Temp9am <= 0.575\ngini = 0.231\nsamples = 30\nvalue = [26, 4]\nclass = No", fillcolor="#e99457"] ;
410 -> 422 ;
423 [label="WindDir9am_N <= 0.5\ngini = 0.346\nsamples = 18\nvalue = [14, 4]\nclass = No", fillcolor="#eca572"] ;
422 -> 423 ;
424 [label="Temp3pm <= 0.449\ngini = 0.245\nsamples = 14\nvalue = [12, 2]\nclass = No", fillcolor="#e9965a"] ;
423 -> 424 ;
425 [label="gini = 0.0\nsamples = 1\nvalue = [0, 1]\nclass = Yes", fillcolor="#399de5"] ;
424 -> 425 ;
426 [label="gini = 0.142\nsamples = 13\nvalue = [12, 1]\nclass = No", fillcolor="#e78c49"] ;
424 -> 426 ;
427 [label="Temp3pm <= 0.514\ngini = 0.5\nsamples = 4\nvalue = [2, 2]\nclass = No", fillcolor="#ffffff"] ;
423 -> 427 ;
428 [label="gini = 0.0\nsamples = 2\nvalue = [2, 0]\nclass = No", fillcolor="#e58139"] ;
427 -> 428 ;
429 [label="gini = 0.0\nsamples = 2\nvalue = [0, 2]\nclass = Yes", fillcolor="#399de5"] ;
427 -> 429 ;
430 [label="gini = 0.0\nsamples = 12\nvalue = [12, 0]\nclass = No", fillcolor="#e58139"] ;
422 -> 430 ;
431 [label="gini = 0.0\nsamples = 9\nvalue = [9, 0]\nclass = No", fillcolor="#e58139"] ;
409 -> 431 ;
432 [label="MinTemp <= 0.593\ngini = 0.266\nsamples = 19\nvalue = [16, 3]\nclass = No", fillcolor="#ea995e"] ;
408 -> 432 ;
433 [label="Temp3pm <= 0.515\ngini = 0.124\nsamples = 15\nvalue = [14, 1]\nclass = No", fillcolor="#e78a47"] ;
432 -> 433 ;
434 [label="gini = 0.0\nsamples = 14\nvalue = [14, 0]\nclass = No", fillcolor="#e58139"] ;
433 -> 434 ;
435 [label="gini = 0.0\nsamples = 1\nvalue = [0, 1]\nclass = Yes", fillcolor="#399de5"] ;
433 -> 435 ;
436 [label="Month <= 0.045\ngini = 0.5\nsamples = 4\nvalue = [2, 2]\nclass = No", fillcolor="#ffffff"] ;
432 -> 436 ;
437 [label="gini = 0.0\nsamples = 1\nvalue = [0, 1]\nclass = Yes", fillcolor="#399de5"] ;
436 -> 437 ;
438 [label="Humidity9am <= 0.87\ngini = 0.444\nsamples = 3\nvalue = [2, 1]\nclass = No", fillcolor="#f2c09c"] ;
436 -> 438 ;
439 [label="gini = 0.0\nsamples = 2\nvalue = [2, 0]\nclass = No", fillcolor="#e58139"] ;
438 -> 439 ;
440 [label="gini = 0.0\nsamples = 1\nvalue = [0, 1]\nclass = Yes", fillcolor="#399de5"] ;
438 -> 440 ;
}